[{"isInit":true,"activationType":"sigmoid","amount":5,"weight":[[0.7176973614957637,-1.396311822843282,0.4530152539359181,0.33534796911202525,-0.19221418984326555],[-0.5339449701130827,0.12147117662317343,-0.26810485895635244,-1.1955498401506317,0.03956819544939069],[0.3569348052022096,1.1587801241106142,0.25179255036675047,-0.3145036329972264,-0.046422695088442434],[-0.580209851880451,0.4921176619243547,0.12249773474109084,-0.9730677818244834,0.0070729920782750125],[0.08071801301157844,1.3615714509937857,-0.42128871577026566,-0.44599497239247105,-0.4815953654999681],[0.6998485829091929,-0.42986346425895006,0.39806900818734137,-0.15585191710304325,1.409910879142862],[-0.14255955918329866,0.01786062694571422,-0.5817937474068766,0.14746306829525002,-0.5282356908786325],[0.5265860538380266,0.1544939431163828,-0.20790226258229424,0.6930835789309879,-1.3846115847752571],[0.08620209802496004,-0.7486485687875616,1.5073687533114013,0.25920900420425574,0.3952290303581744],[0.7266477177614977,0.7113590709464054,-1.8406928181844286,-0.863371269513424,0.7651374315828051],[-0.022985609599621926,-1.2360396944954608,-0.9633109883182446,0.9980872064146686,1.1080294235397776],[-0.214451508188706,1.0030719028976534,1.2864064775422825,-0.03947381494527096,-1.5138194255573258],[0.10204662988616219,-0.312113353750209,1.5623261164584978,-0.8287911814871494,-0.16002758504998627],[0.4153600424339743,0.7200932750444067,-0.342480697705823,0.16092704993542561,0.1432562356123359],[0.9106995519605624,-0.3837339096185009,-1.406371551517297,-0.034247391648434225,1.2978771598177832],[0.46796193999013425,-1.352745355662359,0.8330191346937046,-0.1140065845698983,0.22493015864786736],[0.48211068975222954,1.3667523586853771,-0.5908057714389658,-0.4277754178906849,-0.2911339725433066],[-0.28912365320949857,1.4714613377522123,-1.2025769377879905,-0.5953368293297202,-0.6345443723372886],[0.5127370927898379,-0.12255545891129066,-0.3211755400505751,-0.6758508162036172,-0.5904603942388944],[0.37160174259233564,0.7513467031225284,-0.46674942648074397,-1.0164613818318085,-0.05553211043572211]],"bias":[[1.886201850108101,1.0127210969700122,1.214777496465195,1.540976373995839,1.0637569742105317]]},{"isInit":true,"activationType":"sigmoid","amount":3,"weight":[[-0.5513720963430239,-0.5320200263173392,-0.25618615705049447],[-0.6553810222837146,4.670691111745496,-1.313515408147479],[-4.962604648628445,-2.0666364095532663,2.613094265553799],[0.5082781567273519,-2.6136350554846737,1.8689553580330747],[3.5990929757222863,-1.6510262157643896,-1.5744239847728827]],"bias":[[1.9543925923644043,1.8738509175351965,1.3046961395976706]]},{"isInit":true,"activationType":"sigmoid","amount":3,"weight":[[3.4739149801270193,1.3546268336384957,-9.754172339738119],[1.687308636285211,-8.828287472627446,3.4590983545338823],[-9.561933622914626,2.233865710297819,0.07160075504447952]],"bias":[[1.7167196764647665,1.669662964880032,1.4203957403320346]]}]