[{"isInit":true,"activationType":"sigmoid","amount":15,"weight":[[-0.7521365208492132,-0.5451710947443373,-0.18625343815889378,-0.22072320464476172,0.07401229667635331,0.6985811202943424,-0.3422115175773646,0.06745270497455061,0.9129602833788609,-0.03939358439897298,0.8094172519767373,0.06634442856755149,1.0055993691101186,0.6781194147055968,-0.5022636770380928],[0.37939453365317644,0.6407784870786931,0.6146413838709524,-0.7164885690263771,0.27053524228790515,0.6936537884659378,-0.3712875010240376,0.20908122314126218,0.5805175175354681,-0.8696395270298741,-0.9077365066596226,-0.48559903074968597,0.012248505130323918,-0.5950409516085678,0.5613285408169475],[0.974278739877088,-0.19000838400709616,0.13477809170229163,0.2401276601069676,-0.4974055357710659,0.9409970157854133,0.541286749046852,-0.2709718701920834,-0.6163922516631166,0.553297267874872,0.5219383798408982,-0.13730059673922804,-0.7618760689789464,-0.1171712687303058,0.8224915673074568],[0.9855965750547017,0.7698638011070971,-1.331739366459379,-0.6440833649687898,-1.326384439439297,-1.1873515054141066,-0.4286779650466959,-0.634664377084378,0.747694754447879,0.24828143609643488,-0.08153801580028593,-0.4807664123999324,-0.24402833155365927,0.022305789386611725,0.540871289753372],[-0.7118995409707122,-0.10924993864658203,-1.4153365433331904,-0.8697550194435001,-0.1329152108193225,0.12354796413492809,0.5669609226395732,-0.6807555758404823,-0.31369896409645054,0.4208444584167037,0.8156613401678426,-0.16934594279324572,-0.08301541320260866,-0.5680886936092542,-0.25359292475455303],[0.5026512540018186,0.23093952193875397,-0.7014953406702988,-1.297880749800647,0.8362679627503344,0.6526073906237073,0.8025961179232578,-1.031818567565491,-0.15022978714049887,-0.28369495805139666,-0.7670867332635914,-0.3503455357586765,0.3594673180810948,-1.5042036593880768,-0.4784601688360559],[0.5729763526022573,-0.3125142892403729,-0.628131611283521,1.053865598694473,-0.2749165194323551,0.23834413316594666,0.6253313779086902,0.8261435225490438,-0.384563907210757,-0.783212779283284,-0.7959355856521628,-0.662268251490752,0.8227301493247045,-0.5206156974660547,0.6895615237079442],[-0.4317817836527367,0.7907754712185783,0.7528157738913808,0.36782099855903755,-0.3516689219492537,-0.13088259649757075,0.3762272327096712,0.5071689623528337,-0.38411591825720237,-0.07616309980455209,-0.7464537152050165,0.10413843589996566,0.19854804458857753,0.20956322146412815,0.4150135452408422],[-0.00999297586960786,0.6763753331909311,-0.2975576407861438,0.3724312577319976,0.9862498790699419,0.9985771180505412,-0.16814477184314883,1.7571918180068369,0.32468937183365176,-1.2044904447972322,0.21165126738300222,1.0937728518062566,-0.35785495852527804,0.6883449344357891,-0.7520541147525777],[0.7820156947285059,-0.35057377013974733,-0.5021968900407218,0.7218039454534134,-0.23840478884449645,-0.5814803225738794,0.12100447683990355,-0.12202217394713458,0.6893684390367213,-0.9633666807332087,-0.37719417681812634,-0.6975758142347831,-0.03922852230054377,0.4308053783515982,0.8687208359173374],[-0.19570161023219984,-0.07881400906416651,0.5780964974533718,-0.21249198680136985,-0.2538434331932251,0.17535601718921662,0.9084165118285493,0.6587496241287892,-0.19089234519184436,0.9601240096521336,0.13399618089913828,-0.29613360766061475,0.03313858910041651,-1.5187261937180054,-0.3203620103424978],[0.6381719371661397,-0.9134765318356305,-0.2226920459131194,0.904887564180888,0.4170752233377326,-0.11103180658795894,-0.5420125007408031,1.2822110741252803,0.5749430010047071,0.37674824118556915,-0.3938287247653623,0.4002953720334197,0.9025931291487024,1.1584462055832945,-0.5421160729080439],[-0.099484392003346,0.7183608341246396,-0.5883100696256034,0.6363296023420112,0.27019024758392446,0.05011912807603116,-0.8931491803373932,1.4167163245483663,0.6629870691456464,0.33249567988551243,0.38163031277037307,1.0971925800974671,-0.15794165013609704,1.5736077325228306,0.4449628534427926],[0.47130717369003916,0.24799246455850454,0.4041279146509411,0.7910103221484439,-0.9789674012916256,-0.7063692378666548,-0.5331419333082659,0.3772697602575801,-0.7218001152568916,0.0259670939548724,-0.47361167173423135,-0.7274826119906295,0.5798471734843651,-0.6436738584922654,0.4225766520704841],[0.39400308141371515,0.9046268411739301,-0.36776417227773545,-0.5284896164513193,-0.2205116736129567,-0.26355374087288247,0.5613121903379376,-0.7450430383897014,-0.4115796072302633,0.21575890698974604,-0.7067074342848051,-0.8658444673162748,-0.9919245090407552,0.13209465765309986,0.04415247860577955],[1.0826450130021719,-0.8253879982084065,0.5746178384851977,0.07788532176699997,-1.0375504611520052,0.4693483972759948,0.640812029564129,-0.5097957771420205,-0.8257246344710868,1.5466388850088328,0.8568307799003919,-0.1010764071505266,0.5564955273919783,-0.826437374774019,0.04441119721601682],[0.5577976249120389,0.97507715621526,-1.6166316178100475,-1.242074040628688,-0.43206578525075107,-0.8845416533741597,0.9325945675230743,-1.2491839969286311,0.3857383267200715,0.429619554396402,-0.338058633419009,-0.8693725361667382,0.6092642802977265,0.23227878759476625,0.6413357066917883],[-0.785086281961804,0.7109528100594269,-1.308702853753195,-1.7571857405937652,-0.43695063816145724,-0.24023065638004826,-0.3449717691486875,-0.5215687256379204,0.18724767224727334,0.5818745108813491,0.062019225575846514,0.4980941879784561,0.08565146548253269,0.6350472841113062,-0.9552184079052443],[-0.0018961325273244088,0.6967521863058019,-1.2629612355093465,-0.2147852862392912,-1.5249549378921463,0.025232137651985932,0.4298944159311869,0.3288606599131187,-0.2093572421567902,0.41279162396064395,0.7546898024088374,-0.0456430693701363,0.18218785777000623,-1.060600417953238,0.6785824149793614],[-0.3020894393979556,0.15856261365230417,0.6570569230674489,-0.6857958010992702,-0.20936607184593767,0.4877543559300768,0.12537135425069704,-0.23391300069699866,0.07429190194764965,-0.7662460436081382,0.19268934628145432,-0.983816675489005,-0.5483261587761303,-0.7446472674362291,0.41509518728146155]],"bias":[[1.5190376987772227,1.7264564166267948,1.9686183429961173,1.3349428688078355,1.2146770613900941,1.0568343048063997,1.55698361272805,1.2038125795009902,1.539836687333926,1.4204701220814056,1.7312454979768157,1.8406570338202688,1.7249099184662986,1.2463715776540312,1.635439263901784]]},{"isInit":true,"activationType":"sigmoid","amount":20,"weight":[[-0.24536199632787542,0.4898482105604982,1.0148730707010252,0.6634749902070686,-0.49876664923090097,0.7939323328976974,0.9156899595367438,0.2442299824845014,-0.5542205930452274,0.4926067811807467,0.927121116882834,-0.8189762765151877,0.5087149744063686,-1.1857475899201806,0.09330073634996697,0.9227632340191237,0.2872646981828651,-0.7117858886736084,0.41524714488756415,0.9199757962082765],[0.3966884812509316,0.16458711182161165,-0.646011265184352,-0.3954595121986818,1.0928074422862866,0.3901870909829893,0.4848975619893922,0.4239204318640902,0.8969634932903834,0.7011813050587838,0.9033121349337755,-0.8817246273839903,1.0493442006349711,0.3445747251520145,-0.861875510301695,0.049483116782709356,-0.8520377513673153,-0.5124280188426119,-0.5927529080280137,-0.37688358888586504],[-1.6408592664446524,-0.8096184665591238,-0.035570663119112986,-0.13577507197044086,0.08860543284534451,-2.0378534342192345,0.8561111640718975,-0.9386503563418085,-0.5891758009063012,-0.49747555129985765,-0.2515840505964895,1.312421084691714,0.1711659432927967,0.11356972160828689,1.3820188039194712,-0.36764842742482406,-0.20609105123449403,1.2506061839750469,2.40786729603275,-0.5692524867425443],[-1.2809215500647195,-1.4862799953327135,0.21511884928556077,0.14926405426312742,-1.4428597826758747,-0.9325890514892048,-0.03589527772299452,0.8554864743646351,-0.5174296720018039,0.38758897740742376,0.6562032828839985,0.22896103755576558,-0.6093125253665733,1.9752912437673462,-0.40301988017798845,0.2391756920419164,-0.340813927305333,-0.17888729707236645,1.118890391503442,-1.0751155694763954],[-1.6085653175875516,-1.3670849867291768,-0.19405395182791976,-0.34128967692893003,0.08923178431911981,-1.7341079504706058,-0.3274175103638491,0.79727244969815,-0.2657190475674072,0.7697372991432623,-0.6105687007612436,1.3122681206342335,-0.0855028461339527,0.09218000308682193,0.1544529654971734,0.15152386429351727,0.46569445179007624,-0.34781075178802495,1.712676853483587,-1.3745706991605366],[-0.7340149054660592,0.4231074604798715,0.5130857524992912,0.08155023357714787,-0.6908969432591824,-0.5482160814995958,0.08470326893341411,0.5863426146661198,0.44500634186469723,-0.31450318514806935,0.2469471955223797,-0.08209421898025478,-0.6502287538411996,-0.09402762978075326,0.5575414458035146,-0.4039672728234004,-0.2261033234414996,-0.14092324192794287,-0.2871184425181592,-0.5316681764531284],[0.6506743004677878,-0.20802426007976763,0.46167164487205875,0.19342737205782115,0.6588603422007038,1.2461016778011815,0.5923454970478486,-0.8315721766017449,1.1513840541984355,0.5125957749923905,0.7977970544393861,-0.5274543460551322,-0.6018204031825012,-1.1526521010039652,-0.8694823721619472,-0.8417507342074457,0.42098220782783935,0.8280236787262736,-0.2587743146620798,-0.45426180976820557],[-1.0279563369834062,-0.17780886227934775,0.7199462288612228,0.43569976439651503,-1.1720696362324323,-1.7620305640031642,-0.4227893356168167,0.29526536690189226,0.0994536774690821,0.7682467941812876,-0.9662193244315794,1.4046451549749863,0.3552228031538453,2.1072213796476276,0.9197080297746406,-0.8191735457060587,0.6797758738551417,0.6543813436400842,1.444112704091255,-1.1468521856591136],[-0.329258414873805,-0.40771556952221905,0.7364524641732378,0.43930938185620966,-0.7822208580359177,-0.09015710825721794,-0.6611861485794003,0.9143293204697366,0.09442138153904088,-0.7591390199878804,-0.6030451009758743,0.17163913472234818,-0.2162931737366721,-0.8965611059553116,0.6214657485739367,0.016667257490999923,0.2218338809297755,-0.7559139011474574,-0.9239910141121116,0.4250777834224261],[0.7977452796726036,0.530405880730293,-0.680740024472197,-0.26829990358557865,1.2825637134907213,1.3260325710236855,-0.1555392379348601,-0.7925058182257966,-0.9738078227100695,-0.8212831937325721,0.508173639218284,-0.9640278806436253,-0.2614199999176175,-1.4184127947434055,-0.30028328810555804,0.7550462090360912,0.2135488781471621,0.10058780749581428,-1.474774620297454,0.11014011783808512],[0.9638877123277543,-0.059880260249129943,-0.27771029365059113,-0.6693960896738963,-0.39460344549890347,1.2454403596450472,0.39337905077361973,0.9247234174721928,-0.6226612131525582,-0.7090259415674791,0.8367229522023876,0.415267753078031,0.3677528099227428,0.18602790914758663,-0.8333073250176007,-0.863889154620527,0.011479843017731585,-0.8488861818936614,-1.3718136620383365,0.04390724223335174],[-0.32531377730031197,-1.5221368766030317,0.6133467207071172,-0.41899298440329885,-0.43510755276040125,-1.051518943213777,-0.08305275665888115,-0.391871052016988,0.6977347854380181,0.9571420986293956,0.3073433806707207,0.28036884181839195,-0.44812611187738277,1.7801477356491975,-0.6167739668709816,0.4280684433472145,1.0023551052266615,-0.02953624907286614,0.9725682703510711,0.6644757096972068],[-0.3430080514788846,-0.17889768810519782,-0.3991251410625654,0.0852393414795555,0.1620182773220703,1.1788699907439932,0.9896370734585201,-0.4569639654037191,-0.7143727251895442,0.6468281189244129,-0.9596219011565499,-0.42134881658710027,0.37447920320112843,0.5765760049282149,-0.2843804086269937,0.9724077551508348,0.64874724411375,0.7050221531434168,-0.6367359349102172,1.074031052079223],[-0.7049552601438465,-1.1106449307434756,0.011991164229468622,0.8509700224683368,-1.7107433380903974,-0.6288446077651457,-0.5124614327650705,-0.08816097706944777,-0.5392727809262385,-0.6541970579929426,0.16056911584560554,0.7743961195738036,-0.46779665538955206,1.8683777927483334,-0.01735906817723688,0.7454221296596629,0.03475313101254892,0.350214635524156,-0.4179524562935929,-0.9517989814777369],[0.6153362737759166,0.1786040546524443,-0.7030660673576438,-0.07528694533991166,-0.3055374369398974,-0.7676573010038458,0.8067393927322896,0.00019691876863710131,0.3038821945194095,1.0222711175153594,0.5692611190170376,-0.1278891117340813,1.0068241237769375,-0.6318565182509159,-0.09940443124760584,-0.14125928230932938,0.7345228078281938,-0.13146972602339532,-0.2992388471862079,-0.16058204111813504]],"bias":[[1.6905051296532245,1.7575044171104552,1.6714679781828305,1.9649487779212942,1.983125146596231,1.019879439102286,1.5272257067617812,1.3185068281401515,1.1225997758034363,1.6401113497990736,1.786950827743094,1.3524818183171916,1.566688265004982,1.0239829907735072,1.131549883242757,1.8087558848648209,1.5373419441181857,1.3261318846790087,1.2053635916628769,1.9321165326760446]]},{"isInit":true,"activationType":"sigmoid","amount":15,"weight":[[-0.5832008998308649,1.2770841970082967,0.2790376645241571,0.3690510573829012,0.13342890419743103,1.579705053249916,-0.8861876968486013,0.32532049281301567,1.6493855818936658,-1.5478675310241217,-0.5186134305968669,-0.5785059569425004,-0.6241601166346357,-0.7574020303573058,-1.459977649008556],[0.3930507556108646,1.5586612320940796,-0.25918215317067056,-0.07611972312863168,0.8961423380409476,0.34966439961413004,-0.3888968695804325,-0.09639011249047102,0.32657739901114696,-1.2517027831315461,0.11680916622677416,-0.9990856489396853,-0.5190749117057506,-0.6379928216259139,-1.641230087239285],[0.836968427234591,-0.6824171452200187,-0.24307353159188944,0.5292557078147961,-0.07568049690496248,-0.7853210220364312,0.15945556773699415,0.2861041759328684,-0.17357121458948466,-0.5706373255883417,-0.20119242387362743,0.35680582524443777,0.2074020028048288,0.5352389653353534,0.31716631613820717],[0.9643445809501827,0.293703119070832,0.4621374034313438,0.8517187774038706,-0.8325383907900342,-0.07179066904054623,-0.17791272730439778,0.469280903890429,0.13057771915873145,0.3985852019781497,-0.7129501026061908,0.5199391975952915,0.6752127093873398,-0.9277609429556094,0.09953884449703501],[-0.6227478326231237,0.18640515520988699,-0.47481638382490454,-0.2831061486258335,2.032544433822337,0.9964675103763198,0.6820359273510969,-0.732237918904039,-0.19841074145323226,-1.4894733507898783,0.8638787647016658,-0.19363889191487277,0.38175945079901547,-0.44908566624422097,-1.0371351801511834],[-0.7242003013014955,2.228089722508149,0.8006055392661887,0.4646372359745294,2.630058029229916,1.7802454671888637,-1.2120179776815336,0.6630487933392845,2.0794694571363936,-1.408746298164471,0.7042111079854924,-0.7747585679206358,0.887716825057941,-0.5009535003947888,-1.2920866052562974],[-0.24847364544255227,-1.1120816002401381,0.8913105487672465,0.4664383889968969,0.23977499213874728,-1.0853330665640077,-0.7999953139978949,-0.14899646547487386,-0.21118505632629883,0.23563889422535828,0.41274438999355906,0.03915070296208253,-0.12055218105070317,-1.0065435149314923,1.064041136117462],[-0.008494960436903731,0.46530149289208694,-0.8172790580727158,0.5224506136945184,-0.9282050151468666,-0.16113925083101935,0.0989203928812296,-0.34796120050943696,0.05986185580437616,0.4499563601812514,-0.38090469907567226,-0.8843171082742032,-0.2102832679566162,-0.3482549715781481,0.05237962808875428],[-0.12860138562159118,0.6837148403049216,0.8617137858749331,-0.25504517437792884,-0.0519017148436545,0.7461002220248178,0.6259590296862773,0.894092540968033,-0.6793336236556676,-0.449547975419928,0.08193180922103195,0.3017706013399032,0.7672048046647175,0.25734070560821726,-0.4435298353983339],[0.6168941836804822,-0.6027858310348561,0.2732706872708962,-0.6531598734603317,0.28844340349224395,0.6741562391940392,0.09192684873121931,0.5717585926120992,0.4369321924147191,0.9547568247160831,1.0777057499975304,0.6500029837693851,0.7014107556172292,-0.6475584902214644,-0.033035235802507654],[-0.7544302122332861,0.15363578345140905,-0.34685466944202825,-0.050070113274949986,-0.22139928056381689,0.868065349849262,0.3736891023297539,0.1093235627561309,-0.05413681581536215,0.8966769173073029,-0.7390550682438685,0.008719634965364481,0.2963007568820367,-0.31837239351977165,-0.45255844611724133],[0.9296346796561137,-1.0402894854389912,0.43097093498984407,-0.20807195795447092,-0.6291463692673747,-1.5036579378220019,-0.3371411573029178,-0.48528968652703863,-0.25093289399049834,-0.19306526292509693,-0.17191307185894517,0.278538208787843,0.7604116498864362,1.3830815286181382,1.4838748176856378],[-0.26099845509583053,-0.3589619771246596,0.48051712886253617,-0.5863000773899484,0.9269078219770234,0.9988959853491007,-0.609634959806186,-0.3725857279820809,0.35727599987945424,-0.2756506759030105,0.8434504924588466,-0.08314788928437909,-0.42582007573623304,-0.5016119306045805,0.5871154593587063],[-0.00939343962815934,-1.9255888848061573,0.9510956323588104,-0.9430793120270196,-1.6568983809055262,-1.3260052198458236,-0.8378851173091778,0.4265698732872385,-1.4454613011074784,0.25016784345438187,0.9640961074412728,0.3260342419760508,-0.01145368986532544,1.7768559008267453,2.4690272085283365],[0.7057773358582455,-0.8067038141245674,-0.26089103820515547,-1.0202310649034858,-0.5930116447993968,-0.7840746598625501,0.6021265548816793,0.42502649261689196,-0.2307720347135016,-0.142954228021837,0.09394180324513333,-0.5776976845661306,0.4026779874286749,-0.5219215473264417,0.5141647194765077],[0.5101288770102207,0.7371951072199924,-0.3690415655593244,-0.3732214729041154,-0.2266139572519635,0.4188411445475528,-0.030970703694564977,-0.08581850297076167,-0.7661145443027535,-0.34883861895983814,-0.17538044470988645,-0.3907445303931896,0.22360480218887774,0.7588259667072719,-0.011723719136946371],[0.8151219122684058,-0.7884892360484967,0.9535809135692395,0.23620245001057055,0.3445708889529587,-1.0592626741158615,0.5402038253768815,0.5032325092011701,-0.2813864805289747,-0.9061547225847351,-0.7772114835174414,-0.49288218401389106,-0.6997493798030269,0.830979595046296,-0.277860353482433],[-0.7144566509515986,-0.07034680395094292,0.6140051588277102,-0.9433524878603846,0.5819826700535692,-1.0456962009755295,-0.22938600085538297,-0.33415409124223316,-0.6455384148698075,0.7151279580841476,0.493485505149328,0.24083212535924167,0.8910683158900018,0.4966666359953618,-0.22580567980323127],[0.6756749218588831,-1.6461419002928013,-0.17451457384577626,1.258006267163765,-2.1589179657114173,-2.60850979873454,0.937934216803911,-0.15718496123109088,-1.2714855760067845,0.34619044483438116,0.7808819064280442,1.039677579559003,-0.9343950517332178,1.3020733145419932,1.038039983890252],[0.1055235020948941,0.7268044467147317,-0.8507134265182134,0.5310204805830288,1.0444459700294357,0.05717869974456831,-0.8045389905767429,-0.15947220216603278,1.692031102651336,-1.2752494157110208,0.6891072890580308,0.09305608831176965,-0.2089711758829558,-0.30402793870979883,-0.05604422520442169]],"bias":[[1.179226948629341,1.0011394911310252,1.6908764133407412,1.054772571090001,1.8385095952460964,1.470383100220041,1.8856306833988516,1.9173442542111612,1.6666811045020025,1.10152444534265,1.7541398316546197,1.1203041592300012,1.6994017340840004,1.763612564175917,1.543514385513546]]},{"isInit":true,"activationType":"sigmoid","amount":8,"weight":[[-0.8708237212407363,0.41802500075050025,-1.0161417556729928,1.0828418049741746,0.5639525130393256,0.725504751436804,-0.46707171910005524,0.7472537651696552],[0.9766663776460889,-3.7020277399484494,-1.309136280859131,-0.6780119866323182,0.30764948584457813,-0.8517588545954223,0.975571761047757,-2.2799334371954694],[-1.4006489754481288,0.9300030805101945,-0.36083205694837434,-0.21484334887027842,0.5091464331200677,0.39610183919638353,0.9429952701035597,-0.3085546492488227],[1.0927477474092089,0.772947560822286,-0.3058596546658995,0.34701721660045487,0.6382565698589305,0.37996028497861833,0.19365471667269632,0.5507926202511901],[2.664504397731132,-0.8141113811072189,-4.143073535413856,0.2435667435132768,-0.11588818166251176,0.5415110872347094,-0.5371401459192087,-0.8959785156281806],[-0.24598573288754222,-3.751818831394902,-1.2500814953128205,-0.25400303686131215,-0.7588889244647258,-0.12279497062761721,0.5032887825310388,-2.194176232596989],[0.26795642817689597,1.6948834689115064,0.46991927926379834,-0.8295334218684407,0.841831571796586,0.22005114226412772,-0.3606159499716722,-0.49430668242193804],[-0.12302215768569523,-0.7361417344860912,-1.0918283407504392,-0.3620750270095318,0.09566277044113047,0.4371481163305963,0.2684570114888505,0.6346817006519749],[0.16983460835253725,-1.849644171566248,-3.3994513589786863,0.7790023480831066,0.5468142225321047,-0.896574105682804,0.28641975770725236,0.1350729315488278],[-1.7434265347391749,0.4429111269495873,2.4857581883226985,0.9857002486477177,-0.2740286156993396,-0.49240439362044885,0.534944913982757,0.6559641102404492],[-0.15224049492296626,1.0232771272365306,0.35187920144689244,-0.029106839799749273,0.12178939742973781,-0.7742742840563008,0.4973246599246047,-0.18070003865720377],[-1.4207869694368487,1.2205385381181049,0.3245176013476336,0.7965768684112128,0.40469447355684585,-0.8251781015592504,0.5061266329718771,0.278035524637591],[0.2930553210769815,-0.6587639287964127,0.31162377882732617,0.9996047681391509,0.48048074798827906,-0.1129621727606368,0.35675147483079483,-0.28783300090362085],[-2.32623462044742,0.8736662530112341,0.11310547627757167,0.5004724905728298,-0.4861394033699542,1.0015071913302322,0.79934667274429,1.421366556627153],[-3.83246325844815,0.5071313310699398,1.1620141907026538,0.7613156928648979,0.8044318760367645,1.1233548698420806,-0.04497415530986494,2.2077281782839986]],"bias":[[1.2124547677132873,1.134154939057526,1.842505791628832,1.76594808560897,1.755448846478757,1.2206975540938487,1.7721620861733764,1.7236634934328259]]},{"isInit":true,"activationType":"sigmoid","amount":5,"weight":[[-0.945302521155898,0.6965783028833705,1.2434012566222628,-2.979414528508712,5.222562113163088],[4.484741847397105,-4.817905500251899,4.707208922042707,-1.221799710387145,-1.584292841132162],[1.4875911061032074,-3.5926559158816023,-6.880536941006338,1.6503139345821285,-1.9876675275146032],[-1.4870967908003723,0.18837695752227257,-0.2116928010554546,-1.027412202519607,-0.3587740793753474],[-1.812192597652476,0.9192433532129298,-0.3844258266828226,0.37735930701680814,-0.77806575076981],[-0.7428699861289982,0.05525303486669655,-0.6918632851141423,0.7139741158025761,-1.0952777267477556],[-1.2349671038080567,1.7467398671061087,-0.7460801082200663,-1.3226257385268383,-0.7030559635864302],[2.5678413150615897,-1.7455917755989347,-0.6589739201627373,2.269269905729121,-2.940127476486113]],"bias":[[1.3686698015128378,1.1757578096188794,1.003385207898398,1.4454597560602047,1.36058370792363]]},{"isInit":true,"activationType":"sigmoid","amount":3,"weight":[[-4.916146534077943,5.9756491817971575,-0.9635850636129089],[-0.6613617767425554,-7.386715024529276,1.8224926316626018],[-1.3201079403251719,-0.6568355525396306,-10.84546587348166],[-6.266917193375204,-0.3732557395369345,5.134216630047874],[5.569842922377945,-2.1585736581337915,-4.205469749442519]],"bias":[[1.891301651154997,1.1254637911213097,1.927615460906799]]}]