[{"isInit":true,"activationType":"sigmoid","amount":15,"weight":[[0.5338649199259589,0.5751447462767457,0.8790626539325775,0.42561910483327736,-0.47776294958476795,0.9133774955271144,0.16144966865662516,0.35750280542088225,-0.97301765019731,-0.5870183732857777,-0.7026384288450049,-0.6625031621319464,0.7103357555481045,0.5458527199323473,0.759877197510104],[-0.22832084157188956,-0.5398662191154938,-1.348468633583773,-0.6625755282503544,-0.7282498204366221,-0.8869827983407355,-0.42728879837655803,0.5447462351520476,0.6532828998059164,0.16299840940789373,0.7187922488468286,1.1311635083972296,0.4508411112890837,-0.3648537262199896,0.5431923567699111],[0.5539757268354708,-0.13402366397170348,0.45589149382466465,-0.7106639129925103,0.6794433299371161,-0.0927777888279999,-1.1476627594987672,0.08710034742484832,-0.25918764425560625,0.9191320875005048,0.10219372780389635,-0.45819524749895835,0.6045809178522417,-0.571340389180964,-0.29109950803168616],[-0.11426758228578049,-1.5618393824211065,-1.1159246803139937,1.0669035220597665,-0.2843664136813244,-0.7469506197739009,-1.2605580434813133,0.06943793540307702,0.9656239766141603,0.010282155436682787,-1.0658053321941494,-0.13274818828144896,0.21526766768895703,-1.241128283625318,-1.0758689462622963],[0.6117881538175958,-0.07536523587109244,-0.11427003526524024,-0.8051527372223595,-0.09006949506300091,0.5675714544287518,-0.9339353851445685,-0.11834406742100709,1.301370641962177,-0.19054978040675694,-0.3546627249197629,0.23883700973495314,0.566805288770801,-0.8333870676040127,-1.5776580577896349],[-1.5296167518264443,-0.7828116739194765,0.6125017895254329,0.5604623444434353,-1.1842737287422351,-0.09386181638811268,0.8063719581792562,0.9411461796232736,-1.5427105709909694,-0.5734078959001382,-0.8797194848376017,0.8173857316468736,0.2969279997705679,-0.0006014421793598149,-0.3022847659438606],[-0.011823748375699073,-0.23536110330145654,0.8237256593868633,0.2232804161886711,0.6397593871963716,0.6040792425366048,-0.45292302978457605,-1.0428854792985673,-0.04598914132114698,0.27539512955258194,-0.42615037482189055,0.4574837277348634,-0.6444996747209726,-0.3248309779809464,-0.11196306215530152],[-0.5316348214879749,0.6894972532115962,1.0610448059094435,0.057411408289093475,0.3215375868767702,1.1328120071745857,0.2373766064612357,-1.0004922772768883,0.06499531518866251,1.0965135029358024,0.6401031585398449,-0.456706985219786,-0.11952165797779268,-0.5490791464123927,-0.3649068725822678],[-0.07038852134184394,-0.8112804002920183,1.0054789054620823,0.9377227661019332,1.0911832378557882,1.2430558464626187,0.3976130097477822,0.7241857803638299,0.8467684836661219,0.4846944900488656,-0.5495428918950749,-0.9332811246288362,-1.230757674787483,-0.6031957115304954,0.7547334988866528],[0.7510202058050635,0.427453565839228,-1.0181237857150567,-0.6201661289910855,-0.7059641640143928,-1.3694451790634339,-0.15716543946814157,0.3276301745873629,0.9814508551435385,-1.1406671004200224,-0.13807504869171328,-0.3250705699334024,0.5961179276317782,0.2541585985477681,-1.042542713361592],[-1.5598090596296557,-0.9468630822827825,-0.8230497964246458,0.2456002546229526,0.09711720416180647,-0.44365233477173477,-0.38691136271598914,0.08770461064927165,-0.6361934290452249,-1.4781363678738497,0.29408658369725027,0.451833106602643,0.8846437524278359,-0.48539509303899014,0.4678464305809193],[-0.11590079066658149,-0.47127161959740327,-0.1510229761825763,-0.616852392876533,1.177355753083712,-0.18879765992841213,-1.1923175661753018,-0.024272003354986568,1.2276287826917067,-0.09270633156976729,0.06955712471723788,0.3439311690617907,-0.9349511197421515,-1.1105813323813667,-0.26567797511766766],[-0.44012203428007074,0.16296200182329176,1.0741903208672556,0.7717192931795293,0.24921826509174744,0.5900669857429864,-0.4867211285290335,-0.3523620094126504,-0.5484758657234913,0.5591117743186058,0.3750877700599535,0.9347905803935967,-0.9200349878531631,-0.19454226500483573,-0.5768864139182298],[0.40230751968643386,-0.023420207909580437,0.5586282573557577,-0.5176903758383085,-0.48629897389387544,-0.34447711299040584,-0.32092810108628367,-0.48935302266150416,0.8509072950169063,-0.9577631873109596,-0.5741202107872638,-0.5341554799465875,-0.4956282865148376,0.9025363135567521,0.9420629742992506],[0.4259000609916843,0.23181348193968318,-0.05935062326855578,0.27720823279885304,-1.0171496968885683,0.18614751019813783,0.2316274799304213,0.7121947440277644,0.8479579447845967,-0.5827828831240142,-0.1482901985259766,-0.7266127007133961,-0.865993466216043,-0.5919619621450646,-1.137762114053098],[-0.6413582876388015,-0.13403580957722602,-0.5298406154882876,0.9213352418015811,-0.7533655706853258,-0.9806927423351627,-0.6020445981333161,0.8950552304926852,0.08779618269682724,-1.0221189819068668,0.9154019149557264,0.3191385628403403,-0.28415315920705203,1.3138172112526023,0.005423399412244932],[0.2958290665957234,-1.3174090070465294,0.6222467898664468,0.925719475353157,-0.22697654587640972,-0.3253469911993297,-1.0686136760073506,-0.5670249622666023,-0.037348153813279245,0.5389715262664009,0.42214959667226615,0.9611085864063307,-0.9859796760131836,-0.7905548572784686,-1.5560321818562342],[0.9216747742781417,-1.0552860218162903,-1.1676848248486493,0.9494899614419012,-0.8314922382735083,-0.15619007329604792,0.35226480818756156,0.17356130925343105,-0.4887422196009014,-0.3589388218268209,-0.30023923741589886,0.9810397937668671,-0.5608106775634696,-0.36988228468850376,-0.48906978876908813],[0.13192191105907508,-0.041877105950824,-0.7417324088150357,-0.31743745628001624,0.7019853352279363,-0.957161588914879,-0.4356751036480101,0.4033063525764236,-0.050876603204727006,0.5562016618113105,-0.4675173608681399,0.7128586105228361,-0.2663098645285507,-0.6266566849777055,-1.1215915277841686],[-0.11567198200773761,-0.055703256651318866,0.42072847998899615,-0.05670849271728859,0.18798025407449048,0.7072136381953018,0.4068569206774924,-0.04177071727406053,0.7440995427404398,-0.7310918679505753,-0.030919077594632548,-0.8489279183235341,-1.0240762427931165,-1.264760914351916,0.357639278794328]],"bias":[[1.7653297935414671,1.8922462384536904,1.5291094174410866,1.54699812995411,1.463119211527858,1.0980071934015365,1.9152350355953338,1.1188510181045055,1.0201011865293252,1.510336561211654,1.4956172993868266,1.6265938784680651,1.8772269708013765,1.168145200756239,1.8944616058694028]]},{"isInit":true,"activationType":"sigmoid","amount":20,"weight":[[0.11305015429299328,-0.5000860487664628,0.4904845456407643,-0.4848949959986534,0.3756435762812293,0.9722759839171673,0.60621832090692,-1.0000152793127264,-0.5493587836384333,-0.0805174330781363,0.008294134454823429,-0.6580156660340469,1.5242804944653834,0.034171896730054434,-0.525111226054856,-0.27794922009043005,-0.4604536691752413,-0.5698684423223328,0.3003606019886345,1.4659772621377576],[-1.0389974080296087,0.24721306874691187,-0.4003849254838348,1.016744700210287,-0.03558943551100847,0.15076891154802907,0.24406734806358296,-0.6118790851934849,1.1022319700494843,-0.9150888649029573,0.6434540308198664,-0.40512476237487,-0.8470022533061757,1.0037921436362063,0.4947404338512281,-1.0057075395516955,0.07946054044709466,-0.8546250409853076,-0.38784360788373795,-1.281281454751145],[0.04453053691348549,0.5703885723119657,0.5996540013503455,0.5877319761831514,-0.6575000803941964,-0.31847340438956306,0.7317956705606139,0.5628844947957812,0.9884210945503231,0.3644293236478018,0.30354651536047306,-0.5002394027596656,-0.6477531997984098,-0.616299394890848,0.17787512439303008,-0.993410772645196,-1.3535227201735232,-0.8471777667762447,0.8904871130983464,-1.1252103885224163],[-0.4915439658001454,0.5134355446613913,0.24536237910243933,0.35123743218847053,0.556489804666067,0.5896039419485527,-0.48041124187895257,-0.8370463127096904,0.3025903159953244,0.5715195663141281,0.6705681213264081,0.961141527046662,-0.5408707184569349,-0.9449603705318663,0.44315497654587305,-0.04939318790209529,0.4397082603349769,0.08564572212711115,0.2110210445635704,0.4884356338016869],[-0.916078373602802,-0.3453566896114046,0.39010629424014487,1.9055192659540359,-0.32655423940057526,0.7572453162105983,-0.039399583887963684,-0.44171991863676013,0.3851206783943682,-0.24160599920794296,0.9102195056095987,-0.6353401186790532,0.00930757073559274,-0.4374175651176259,0.6016316181166627,-1.3690522214746639,-1.2073307019313202,-1.0816153590605675,-0.3934498225056721,0.36059702867356747],[0.5426799347155474,0.33547468444720613,-0.630110596634052,0.8942451967136417,0.9032548117853306,-0.347422671099698,-0.6767252309222243,0.1581927832290514,1.1925964311373807,0.09773910114969149,-0.29174957438492244,-0.694641913305049,-0.6986410766641229,-0.3106026033248111,-0.3189152520610081,-0.5608360215267093,-1.1566148084515326,-0.5314920536168235,-0.3582445803252196,0.7015587408173868],[0.1941127607338154,-0.4780340560671731,0.003343757055064275,-0.46970721399372817,-0.5670958254268346,0.6454581353616533,-0.4863220680740717,0.03632781702548266,0.26524824142279846,0.5940649392311186,-0.03993408595274025,-1.0597376349790362,0.35981099508312786,1.9761219677161197,-0.745059068516964,-0.8356407895899826,0.14207039093341697,0.4331414416656115,0.31437537527558085,-1.8733013350950567],[0.9309018761371769,-0.6136034088378394,0.04187657372112987,-1.3579183683035205,-0.5404953722288839,0.3411377162644105,0.9636615828943468,-0.22673090145273012,-0.5296113455725784,0.2652426370001063,-0.5922063150082393,0.06679723109872876,-0.08624633090744485,-0.665873586417627,0.18316236489499416,0.9611595955661238,-0.09977827036549719,0.5236612611846185,0.2519494282924228,0.46108648429092297],[0.35671312802716854,-0.23092353735137103,-0.494620911576136,-1.1839133817149265,0.9984967277124364,-0.6197298313750256,0.5058349854609968,-1.0827811661347473,-0.3058195270815247,-1.0947616630266328,-0.11401852417162187,1.146060880305263,1.712933003707571,-1.9118652452174099,0.21805156060980435,0.7881524536208077,0.8139705177920786,-0.3952365665273766,-0.5926215048013844,0.35429489783008017],[-0.849866463864494,0.29631381761143266,-0.3169019116986577,1.1478735539818592,0.07587315843118918,0.3509160343698036,0.8626413480686888,-1.3773757385628498,0.4945932281654236,-0.6663410494799837,-0.6719000803260196,0.14965257077687924,1.3016505424487121,-0.3268706195642833,0.35676987673477184,-1.3050071696350765,-1.3597190857697043,-0.7991496374876994,0.774912345682772,-0.40004743472199067],[0.48478940776286694,-0.1762975815355563,1.0853461119212264,0.11567715388468351,-0.08529361461272318,0.9073383534351871,-0.43543067199424773,-0.05287335607176217,-0.22282536924328317,0.5654000882738,0.2216491241590111,-0.8185422632764562,-0.422579172665511,-0.19066151671464898,0.1614040313257721,-0.7229521537298477,-0.8301468608017123,-0.26049754084148086,1.0148623189819799,0.41654054531149987],[0.719232100430846,-0.9496189823946954,0.8361132863915524,-1.0124770900112054,-1.0504354040432335,0.4906278409269229,0.6952483190573638,0.10401491070625962,-0.5945579615443725,0.8041852470826774,1.0176878143306483,1.102232154646964,1.166532351157051,-1.1902232700724116,0.11996353611460381,-0.46647804297395595,0.7703400450654101,0.675621540094442,0.8090484032732147,-0.5258920305873738],[-0.21172919886940503,0.8008381497790259,0.18929122275377666,-0.5329139104819302,-0.23016013142414576,0.828959086527237,0.8917651484255634,0.8276323321095757,-1.3716952417348434,-0.6053423643405963,-0.4970781304079564,-0.8759714511964265,-0.9589472226195069,-0.15763555342100585,0.05090284939776743,1.4004884989865873,0.5860080161057835,0.7399275678408106,0.9420180980193766,0.07949727412894508],[0.3038580184810162,0.9674588129500096,0.2315024923061371,0.44888636359786144,-1.31938107755997,0.4734711735528463,0.3092937752272374,0.9220357941664171,0.22748630221825392,-0.22197941394194093,-0.2319568437330824,-1.0042331162333016,-1.1767041089541048,1.7317524934402717,0.30583928344634165,-0.8961369326750291,-1.6297062989055988,0.5226648766017165,0.22452176069732685,-1.4386482405460885],[0.7328305240471384,1.0263236244483858,0.1342022797283356,1.8264773864972814,0.2376643904346812,-0.6298157265941938,0.43311968591566824,0.23757387508624656,0.8159968163018484,-1.0658994386321001,0.7107880184031778,-1.12314603746591,-0.7930230572692697,1.4391389608591187,0.6892689483389982,0.7162972195187918,-1.1700610614521272,0.22303353809202078,-0.19811822805493937,-1.6716786477749124]],"bias":[[1.2251623753090244,1.3682847870311226,1.5038650168454635,1.419159755095696,1.9679354605655253,1.2634803795730047,1.5678065932060825,1.2992470881275309,1.2026742090222917,1.980687125527781,1.7083008460110383,1.577109010624743,1.0088241941537157,1.8225300986273025,1.392419976648892,1.149153496456058,1.0990574890586764,1.038501748465571,1.3807300971618228,1.4827122271620554]]},{"isInit":true,"activationType":"sigmoid","amount":15,"weight":[[0.5095579359537555,0.9551973448436852,-0.9758510433204176,0.35728023089532795,-0.052830947845285754,0.8122804804410241,0.04678957823077497,0.46031551364100826,-0.2579878773177721,-0.8556352450217978,0.7824490097332384,-0.4714706621191897,-0.17945373692373875,-0.1689888500556859,0.7756104262073068],[0.2755968717076792,0.10226575486633377,0.5385613392750757,-0.6841610023053237,1.1257305707373788,-0.9140392641276647,0.22095936061297738,0.16817175397379333,0.8240931003008625,0.03816446343882441,-1.0844503001306192,-1.0872345359369482,0.8093935047518913,-0.14821065877697184,0.6780577588295593],[0.15795253504434145,-0.4164465053735294,-0.36570095881562936,-0.11674472020708923,-0.6557561618885751,-0.8187311992907752,0.1531067012546867,-0.3083424880534303,0.9387175324231782,0.8810367427153508,0.3396235941817284,0.7168511514571242,-0.2901665088674931,0.6187284626551655,-0.05809064704673969],[-1.004863035017958,0.7675773584060556,-0.3675195239589911,1.2973649854261247,1.4559455204101848,0.4764485239248135,0.15286267730527375,1.4630066364517538,-0.8408496329418903,0.596310370570733,-1.4847780565973627,-0.7576062163061031,0.87805072760752,-1.3272741931984662,1.0468409734449031],[0.3738691461118406,0.7616218498205487,0.6362077819797161,0.41835991538212175,0.4630668285017307,-1.5403650148582622,0.6696846299844018,-0.13051029020881272,0.40845921712081873,0.8452190884108907,-0.5076337435453794,0.4237366754905278,-0.9114745837623174,0.8885242281932335,-0.5842881993567762],[-0.9298850459168098,-0.7517874742878403,-0.529652373115432,-0.8941397708525286,0.12182998581471366,-0.2496105343698544,-0.8903128341743766,-0.7474680828492933,0.5825578667780378,-0.4693169181742153,0.8007317629198317,0.656708035483296,-0.37227534744691904,-0.8936681080442168,-0.13110592907852656],[-0.00670676122579078,-0.4927118293722802,0.4551107968272799,0.5026833966727806,0.45861583282552965,0.21531367098483714,0.22616193079083483,0.09309458299586994,-0.5446413589204084,-0.36904827554208275,-0.7403004891478843,0.7711423630931751,-0.807364262590939,-0.8478330208517496,-0.643363597661838],[-0.0405104016078937,0.801665048700406,-0.915386538792543,-1.3013966003592121,-0.25125793907886623,1.0560954521532602,-0.4829060056921745,0.8499656065323424,0.19322762689649922,-0.7290571705347021,-0.662653265260439,-1.300129993259567,-0.32671629545551495,-0.013431965364284038,0.6694459636880967],[-0.8877730213565358,0.47435177454162714,0.4851530054003861,1.191640218629094,1.5934027714852523,-0.34835321653268536,-0.5887310765944807,1.0862437269180358,-0.18049123005775028,1.0407050193402132,-0.9040698611130094,0.01381935429602548,0.6131832476446842,0.22274997256315068,0.2507567580712007],[-0.21292558444570886,-0.32142459733466927,-0.7755039745169235,-1.012887329686769,-0.412337478362325,-0.6146096101119153,0.48068614264517,-0.2764135618066743,0.37335834816474633,-0.01572349736497627,0.8618350289626433,-0.6164376654752834,-0.45080273560111866,1.1988207014655436,-0.7878752402830992],[0.27602989189967586,-0.22184926625727003,0.2556800958683591,-0.5009518172690547,-0.2765136649229614,-0.837611081393273,0.3320075412089113,-0.09916166564968003,-0.2614709044958414,-0.7550484621526699,-0.5175441045027387,-0.1397478876353094,1.1060569430133518,-0.28355675048255713,0.14762454203030298],[-0.16511868638043228,-0.5608376061465704,-0.45565484718632443,-0.6648076489032597,-0.8545875782425392,-1.2028773528799246,0.15838592390044712,-0.5045808944573602,-0.21293333559607064,-0.24960413297214426,1.754610222039094,-0.008831620598314051,-1.1657540027453412,0.0352737250913423,-0.5728985689303601],[0.9338343666331648,-0.31005421607712974,0.35687063682106285,0.22752595873936332,-0.29121395269777584,-1.7339860510074636,-0.4648891314468754,-0.8101716869317077,0.6456887063253012,-0.29135149895628537,1.0803380849096225,1.284845620455189,0.009845162735692733,-1.1919494899127026,-0.8711103049682984],[-1.4271721114532934,0.07366010677264127,-1.1481706485066598,-1.0823768149420006,0.946908523153949,1.6285030955839037,0.909768522513752,1.8499977336169346,-0.14992753792046656,0.022182539420243622,-1.9643796409446854,-1.4456818712845372,0.6654480847760293,-0.17727202401359093,1.0350119610021997],[-0.8254984004000111,-0.041340585334319536,0.49170482975477475,0.8619858617858599,-0.417920894425257,0.6902483405258849,0.5830521634126683,-0.6424042984977391,0.8987685309397405,0.10354636569898064,-1.0637929429299158,-0.42095388411675455,0.6580384540077203,0.25381684806818966,0.5311418981959483],[-0.09931494265114027,-0.9102264938478838,-0.7311854976331806,-0.33045141368724545,-1.263633215083671,-0.43053607891448314,-1.5003338104363373,-0.11052396605893884,0.655391874782154,-0.70384642039901,1.2380089789533872,-0.7238275967870493,-0.4805301861492825,1.390466836986112,-0.9720529194371504],[0.25693452866141564,-0.5005972359158865,0.8334354390972679,-0.8949428698123588,-2.0483925405650383,-0.5543568345564155,-0.6948302861261424,-1.4324613316745602,0.36442925899694284,0.19947524632450472,0.3821092027313961,0.38019826383383715,-1.2605050891984935,0.7305941398815252,0.12050104447080975],[-0.6003202175169232,-0.02904866770585299,-0.035114369852465396,-0.7909838011921497,0.40789545350004336,1.1754843373424153,0.18474639203707657,-0.9327208361595145,-0.3922700726456141,0.49292844529388674,-0.5042336825092752,-1.2033079095880326,-0.7517130167698356,1.5041756753336877,-0.2865019497057961],[0.6115640079717588,0.3034735083848056,0.18903866175420794,-0.8565400499215743,-0.16925871772974227,-0.34708215431850686,-0.3749731481935947,-0.29634337387651416,0.11235173762606672,-0.5509813011772546,-0.3604926145316031,0.33562989247116176,0.5465848870768801,-0.378656924123995,-0.933336089031368],[0.9013643241001229,-0.6381228004067377,0.7773175710387653,-0.4727584972365719,-1.4586491341026562,-1.6470353899023822,-1.0452334375943382,-1.8741586732740632,0.10599109169060665,-0.9502091564736603,1.2944668206612715,1.0587090665184613,-0.5609875481871098,-0.9532718192588644,-0.718652171022646]],"bias":[[1.4897155423942934,1.0616156038552664,1.7731478339672462,1.93589379649161,1.1897849762014112,1.9344724119867467,1.1041719119570998,1.2096734423800306,1.478579703505171,1.1241376429479646,1.8858939915281108,1.9818495015138597,1.4578980477542278,1.1061822908888141,1.3284750446560551]]},{"isInit":true,"activationType":"sigmoid","amount":8,"weight":[[-0.527879169541559,-0.10896729943229191,0.9827705919609607,1.317609371580543,1.3623163791949524,-0.09065858587442273,-0.9771929721003269,0.5212127317635189],[0.22499218479224484,-0.17359354023289517,0.34967822021108835,-0.529945538780301,-0.3181135686405644,-0.012740454807700051,1.1950995118359728,-0.37851060051487206],[-0.8688614627650154,0.8733279916535484,-0.05861913815399677,0.74216079240423,0.4137914379317204,-1.8499823685635135,-0.5056489770146856,0.9040874618662246],[1.0215436801001399,-0.02857367921123332,0.7092542738768294,-0.6173680377821354,-0.8231981030737222,-1.2400144587792095,1.1472781851152933,1.0914786374484515],[2.5436187486267956,-0.6005617498831111,-1.471502044514866,-1.0700495347922547,-1.7007487029510477,0.4346954951959898,1.2742067460071187,-0.31856682118870777],[1.0451607597982318,0.3922779026132557,-2.0122466232036027,0.191027425953837,-0.6564179545631925,1.2911475993654182,1.2253263941864485,-2.084111183086552],[-0.04824508408568908,0.8970823839293146,0.3666661321593523,-0.8315988489184406,-0.7306872666323289,-0.8643847033507863,0.9698666942685873,-0.09801426479312031],[1.7129907899036747,0.3264787945577753,-1.4625535844310453,-1.209451122551271,-1.5660778078430648,0.9351027608154024,1.6378176407261038,-1.649776423211991],[0.14342919752194475,0.8765542999451565,-0.4616998362399464,-0.19188668076532156,-0.17550323586601313,-1.0926408355494293,-1.1634877167967859,-0.13735080851588852],[0.9465380555326576,0.6718047953515102,-0.8037537778766294,-0.5768098418465695,-0.3479977100917299,-0.299356933395638,-0.321056548972045,0.6247758501465901],[-2.358804334822819,-0.1847444366149896,1.0983415708015878,1.3540047412163607,2.9746147230198314,-0.8149181175352667,-0.6952663296760814,1.159187127860405],[-1.0905943564303036,-0.16185127369787736,1.898630356175721,-0.19455824291106424,1.189089664907602,-1.9311334505866227,-0.21613949893258957,0.48863003338823574],[0.5748579570466995,0.5513845149618432,-0.47868804297347983,-1.2415334990267786,-0.49437344472147293,0.5864593609715335,1.1376329651156891,-0.22595654667527054],[-1.6694982413336403,-0.006945364933102106,-1.0528123846444817,0.40696945042730565,0.2864253545166992,0.7638825747483066,-0.7037832262334771,-0.5528848908467678],[1.206109490176527,0.0153474672960539,0.42082083938993836,-0.13225760481244866,-0.9572788672360791,0.5756917014217353,-0.05502082186813956,0.15387039470270364]],"bias":[[1.4093958530060098,1.939004569254307,1.794175957116301,1.0271465075506678,1.016461298274901,1.42122364426529,1.059530840771787,1.4252609731864538]]},{"isInit":true,"activationType":"sigmoid","amount":5,"weight":[[-4.839346377074413,2.563721702840806,-0.043211347944923796,3.5449076402569375,-2.0418076629647874],[-1.747949715541417,-0.3773579562978413,1.204175052688287,0.29463692111455714,-0.08075961940978015],[-0.33360337592959055,-0.7946091901076979,1.095267795491198,-2.3237257315285613,3.980150110087075],[2.18461232921399,-2.0493886588435433,-0.022174435644142274,-2.576921810995536,0.5432386862048697],[2.0490598230934136,-1.4659558204810568,0.23134910088420327,-4.207339603596254,3.715961691650041],[-0.41154863057316005,0.8344148095416256,0.951927633463178,0.22334977959679136,-3.0687403308315786],[-3.3400844159824263,1.8811499237042495,0.9840831284863863,1.0338013160478106,-1.5303495692083324],[0.6746439656636442,-0.36131092662598807,-0.12550575270801706,-0.8872014504962248,3.122753859509715]],"bias":[[1.7799356777841804,1.5925993097313373,1.9788509937191998,1.134152519182449,1.6175131967119696]]},{"isInit":true,"activationType":"sigmoid","amount":3,"weight":[[5.86719727754142,-3.764229116623102,-10.614645482372495],[-6.29722052714155,2.6894554467036396,0.3615782899746384],[-2.746842287635281,-0.4734408581346513,-6.667050712548713],[-4.168634559825592,9.693298339992472,-0.1491189632800414],[0.9743643255733472,-8.152963199248076,10.481724357424687]],"bias":[[1.3507104427672791,1.6847975194027733,1.6074272746415779]]}]